-0.8152421,
-0.3876303,
0.001822591,
0.5123541,
-0.9720278,
0.4582274,
0.135794,
0.8101203,
0.5097167,
-0.1416444,
0.7730529,
0.0941745,
-0.904031,
0.8612413,
0.7274487,
0.04450333,
-0.1189538,
-0.1559232,
0.5894456,
-0.6311119,
-0.479066,
-0.9443128,
0.8140388,
0.722332,
-0.8236108,
0.3963182,
-0.4018394,
-0.6819541,
0.1781706,
-0.8297598,
-0.1341437,
-0.5133529,
0.8151276,
0.2288166,
0.5666566,
-0.3797039,
0.5358422,
-0.6429973,
-0.7088659,
-0.7163885,
-0.5684595,
-0.3864025,
0.4419605,
-0.724771,
-0.4273151,
0.6478572,
-0.1980969,
0.2500524,
-0.06178129,
0.8054459,
0.2280804,
-0.1742271,
-0.9846895,
-0.2048942,
-0.8175054,
-0.7766118,
0.2774815,
0.8610678,
0.6377666,
-0.8812845,
0.5935922,
-0.6495738,
-0.7171302,
0.7770152,
0.08964407,
0.4947867,
0.9059801,
-0.8901381,
-0.7942524,
0.4006259,
-0.03375137,
0.6972463,
-0.62148,
0.1977252,
-0.1928483,
-0.8246629,
0.55581,
-0.7020626,
-0.9872808,
0.1173018,
-0.2069255,
0.1330162,
0.1697172,
0.4841911,
0.7090819,
-0.9511018,
0.06331313,
0.2804527,
-0.4975046,
-0.6306427,
0.19339,
0.1371866,
-0.7768784,
-0.4076113,
0.9640291,
0.1846319,
0.8134387,
0.8845987,
-0.365702,
0.7785852,
0.6716511,
-0.1579937,
0.07147038,
-0.3141052,
-0.6630077,
-0.9735837,
-0.7270951,
0.006421924,
0.9791236,
0.254755,
-0.7193453,
0.2909171,
0.3991704,
-0.01101458,
-0.1890999,
-0.153319,
-0.9477966,
0.1288251,
0.2664177,
0.5683687,
-0.1006364,
-0.3699406,
-0.620785,
0.5112655,
-0.9028244,
-0.1174973,
0.9648926,
-0.7262864,
-0.89101,
-0.9243667,
-0.05545366,
-0.04210579,
0.5620527,
0.8690212,
-0.05474699,
-0.514051,
0.5974333,
-0.02910054,
-0.6325748,
-0.4314517,
0.5804615,
-0.6864402,
-0.1032771,
-0.7005339,
-0.06150854,
-0.6666934,
-0.002820611,
0.4085674,
0.559936,
0.5657971,
0.02225864,
-0.5289772,
-0.1892523,
0.5263212,
-0.9235587,
0.975672,
0.2823574,
-0.7633719,
0.05653131,
-0.3395997,
-0.238546,
0.4837279,
0.5560455,
0.8142238,
0.5845845,
0.5645003,
-0.05282915,
0.4307937,
0.6942785,
-0.235155,
0.384727,
-0.7816434,
0.8847506,
-0.6080945,
0.3825743,
0.7834647,
-0.5089111,
-0.00494206,
0.05786359,
-0.6192629,
0.6135032,
0.5054553,
-0.8116226,
-0.8518028,
0.58708,
-0.1234874,
0.7853055,
-0.446081,
0.2354439,
0.7847946,
0.1220096,
0.9132822,
0.3184445,
-0.2831875,
0.2788233,
-0.04419434,
-0.8356564,
0.3687827,
-0.182701,
-0.9538152,
-0.02955163,
0.8272572,
-0.5422285,
-0.311062,
-0.4635984,
-0.0454458,
-0.1472453,
0.3061135,
-0.6640625,
-0.7468417,
0.9807472,
-0.5067008,
0.4360556,
-0.2292458,
-0.4563462,
-0.5201502,
-0.5977256,
0.3165214,
0.5630155,
0.03070581,
-0.8955133,
0.2576773,
-0.4765753,
0.9320834,
-0.6601746,
-0.8186107,
-0.5733559,
-0.9099698,
0.805156,
-0.5264635,
0.4980097,
0.5809298,
0.5098286,
-0.1551059,
0.1700794,
0.6292906,
0.5052567,
-0.05261123,
-0.9402096,
0.237244,
-0.5474813,
-0.7186999,
-0.3160287,
0.8884833,
-0.8978412,
0.3029806,
