0.1142627,-1.993675,-0.7258816,-2.124156,-2.922167,-0.177342,-0.427767,-0.6395769,0.0003596246,-1.059849,0.8819249,-1.094767,-3.371527,0.08074141,-2.405036,0.02165246,0.000460444,-1.608639,2.223144,-0.2537989,-3.751673,-0.6861875,1.11926,-5.061459,-5.281192,-1.723449,1.733628,1.541021,1.190012,0.8562545,-1.665771,-2.988892,-1.354075,-1.30901,-0.6764041,-2.204307,0.8511249,-0.8514345,-1.769086,0.9597833,-0.01628184,0.7783916,-2.904884,-2.21559,2.148535,0.404694,-1.515256,0.8659883,-2.517967,-2.526608,-0.2837916,-2.398807,-0.1510352,-3.140655,1.619927,0.787073,1.597505,1.358096,0.8521028,-3.069547,0.8929012,0.1809999,-0.2372499,-2.425736,-1.380442,-1.871058,-1.067424,2.08229,0.6565062,0.120497,0.7398194,-2.351299,-1.700245,2.587831,-2.536525,-1.318607,-1.478959,-0.01678884,-0.3997674,-1.053849,-0.9833586,-1.100299,-2.035025,-0.02386571,0.0216571,-0.6940423,0.4593679,0.5620022,0.3812477,0.6798509,-0.1558805,-0.4619957,-0.04645951,-0.1522653,0.6501154,0.7713479,-0.5279818,0.7156888,-0.9667524,-0.8681896,0.5087296,0.7400836,0.4060681,-1.93475,-1.826163,0.4791785,-0.2300518,-1.094656,4.268682,0.4879928,2.329937,-0.6450983,-5.152286,0.4941289,0.6249256,3.657383,-3.624733,1.293742,6.555376,-1.245372,2.651918,2.62674,-3.003825,0.7933018,2.259664,2.441974,-1.63437,0.677013,-0.04233146,1.09532,-0.7783731,-0.492369,-0.1865692,-1.628736,-0.04459584,-0.5476406,-0.9810463,-0.146947,-0.6833935,-0.1202126,0.1161816,0.1079825,-1.037008,-0.3106866,-0.1823154,0.4414338,-0.2850475,0.07471864,-0.8368232,0.1982983,-1.135602,0.5092617,0.2100365,-0.8366763,0.2022902,0.107913,-1.09768,-0.515741,-0.8872175,0.5908206,0.3772253,-1.409609,-0.5306432,0.03569389,-1.068579,0.7899699,0.5622951,-0.9712228,0.8613573,-0.4038509,-1.26923,-0.7760273,0.7532493,0.5145149,0.3188174,0.2372239,0.2672515,1.391387,-0.4541645,1.624511,0.9353443,-0.01623817,0.8248094,0.6148586,1.255175,1.640203,-0.1483562,-0.7991957,0.1811494,0.2903367,-0.6476535,-0.3472387,0.8425661,1.240067,0.343297,-0.7679351,2.119981,1.55596,-0.3022892,-1.189424,-0.1677521,1.357525,0.6019619,0.4275314,1.26457,0.2940395,0.03984392,1.955041,-0.4808764,0.8454124,0.4478329,2.404566,1.77564,1.987315,1.663294,0.6665723,0.9416574,0.4629935,1.196474,1.498857,1.162695,-0.2886847,0.4036106,-1.60257,-1.144451,1.562498,2.854149,2.848595,-1.210453,-2.663332,-0.7493912,1.889848,1.548554,3.08677,-0.008248232,0.2167003,1.272013,0.7227445,-0.2839172,-0.1925655,-1.23353,0.8570138,0.742879,-0.7718335,-1.181929,-0.7625116,-1.574534,-1.007391,-1.302273,-0.07672507,-0.7116511,-0.3331154,-0.2966053,0.4374557,0.6101624,0.5235503,-0.1198272,-1.454276,0.06065999,-2.329506,-1.011609,-0.7895666,-1.802864,0.4710094,-2.216539,-0.4018815,-0.9118505,