0.265761141875716, 
0.229005273881105, 
0.340105879141391, 
-1.81011825899461, 
0.239618816336803, 
-0.154964577702573, 
0.354578398355932, 
-0.142741646902846, 
-0.755626464468801, 
-0.98957497663783, 
3.50844761373078, 
-1.28604732341581, 
0.93598529017519, 
0.82370453438258, 
0.0301942453145366, 
0.426368179769364, 
-0.869010969021317, 
1.06182111549593, 
0.702972705840972, 
1.60595175623824, 
-0.386160524191102, 
-0.616278412981145, 
1.09282664310938, 
0.131594992989935, 
0.594374556718697, 
-0.832770331580881, 
0.970727563913601, 
-0.490901330493115, 
-1.49328718551835, 
0.642511314535382, 
0.626708148046201, 
2.098449484858, 
-1.00657241429105, 
0.0351739502878201, 
-0.684203379094898, 
1.07218078386046, 
-0.958657546632242, 
0.413624915121851, 
-0.206103843950225, 
0.481907744149185, 
0.292570519912491, 
0.572989802733852, 
1.12638732265517, 
-1.02701189920071, 
1.68671777081022, 
-2.17505685386273, 
-0.247833315861363, 
1.4300391414902, 
0.77526489828751, 
0.203508829172167, 
-0.50337992410266, 
0.586250207356896, 
0.658918790349641, 
0.218259339352803, 
-0.425013735114173, 
-0.0980193698385392, 
0.620557727985392, 
-0.043692676704533, 
0.351110443473378, 
2.03154864470686, 
-1.41373131609944, 
-0.848461399393495, 
1.23352368841632, 
-0.811047052298749, 
-1.62089995682512, 
1.97942922190581, 
-1.29343074661918, 
-1.70467648140884, 
1.3048099947605, 
-0.690939956840384, 
-0.164942415282319, 
-1.38556228706689, 
2.85040508927392, 
-0.0543498647377013, 
-0.36075910621167, 
2.9442399010508, 
1.74264310105087, 
-0.537967965434748, 
1.3793053371323, 
-0.336801540544419, 
-0.593298923192334, 
0.99701522944789, 
-5.10082626204462, 
5.79375630691874, 
0.766857089365068, 
-1.75229482459373, 
5.13012178873048, 
-5.53588513752054, 
1.88462980450383, 
-5.66792777296175, 
5.58138939193623, 
-0.681692299814404, 
4.83299365410629, 
-1.36060861723038, 
-4.08521756335207, 
-4.16790260660487, 
0.0267382275504999, 
0.610671547229733, 
-3.45058055626451, 
2.53180886981627, 
0.666091515565071, 
0.577267335265984, 
1.07386158138438, 
2.7427755868114, 
-0.737231577027444, 
-1.83134486092765, 
-3.28831772423482, 
-2.01116751628301, 
2.6328703724862, 
-1.03269390817366, 
-0.472711128643451, 
1.19927025385864, 
1.01860572654765, 
1.48293081571332, 
1.19035548705224, 
-0.273279447255973, 
-1.78393093643241, 
-3.21159322069071, 
-2.38539924050058, 
1.16489655043567, 
-0.516401824757094, 
-0.940026146572157, 
-6.8352925044419, 
1.00729329306343, 
-2.89900166725323, 
-0.901569427146938, 
-0.134040005640863, 
-1.0424808766336, 
-0.925684126197487, 
1.0245938538979, 
-1.41997811296913, 
-1.01501188061256, 
0.5734277864915, 
-0.523690183648803, 
-0.756589126492274, 
-0.271396516967995, 
0.953018134407986, 
0.597430970611579, 
0.261025332000991, 
0.238982812158857, 
-0.456314464783436, 
0.165819143386389, 
0.347533103838994, 
-0.455980425962279, 
-0.289000256479564, 
0.413044990437337, 
0.215587023358282, 
-0.216204303836992, 
0.136613006012358, 
-0.250897370300223, 
-0.621451917063139, 
-0.106721207868164, 
0.711418510888464, 
0.232170903102772, 
0.171489114280313, 
-0.563890546042475, 
0.186480675623587, 
-0.14859872429065, 
0.193717915489679, 
0.0605436541031981, 
-0.0591384694114247, 
0.0855346661752994, 
0.409601143722151, 
-0.605204557328372, 
0.119519304351663, 
-0.166562361944748, 
0.232261928094344, 
-0.900672040823911, 
0.317247920260487, 
-0.485149889163186, 
-0.989489248553499, 
-1.63643782228091, 
0.773764418009065, 
-0.221187776838224, 
-0.783997004560146, 
-0.116596556820148, 
-1.78913342349787, 
1.36524834924748, 
-0.389475443664251, 
0.0597529545292073, 
-0.0638653755147356, 
-0.570917658342752, 
1.55555887225733, 
